{"layers":[{"weights":[[0.13612518732199128,-0.06469934378398391,0.6237135994480634,0.1406303889364811,0.5739856621301346,0.16042488875042066,0.8874554676297758,0.6374493502722615,0.0012951032722181013,0.4917559750412624,-0.12135958109087287,0.4351914020661703,0.9590137576351561,0.6871622658004003,0.8201948897744908,0.26746665975850775,0.8155931400944354,0.24795449620143606,0.41418317319929576,0.45361839377991675,0.09908165318292084,0.7255599718167823,0.005610036804891916,0.36688619492510655,0.23523387285372088,0.41814518384496524,0.7820264387200102,0.5416773894460124,-0.3265320858663774],[-0.20969008365527547,-1.0131828937085376,-0.32183064045365123,1.4772958156855236,1.6631738704478107,1.263323706669662,2.1532878190673825,-1.744224283543894,0.6871405142377147,0.2136008126137267,-2.0519575504440586,-1.833253103293741,-1.051035751061222,-0.8975315730083391,3.1554703613538244,3.57633967661782,-1.5586463895271525,0.5108408110660726,0.7900107741018522,0.6689166083555828,0.5178112973489957,0.6059757372777688,0.0658776826136599,0.5139760654700415,-1.027928047985551,0.5912681453433261,0.6884014807404977,-3.2705621841066317,-1.7573168399823405],[0.7773711322476685,0.4760144483494242,0.9917159235312556,0.36891735163635475,0.3251739101719957,0.26646176230192853,0.34299408862397435,-0.39463382530409735,0.5874873937550773,0.40124822181075404,0.6051740606521708,0.8466667340309302,-0.03987246553860459,0.4042325960666241,0.2509334824027215,0.24095369055921087,0.41610266248299954,0.6476917023548582,6.990087794233046E-4,0.7909862627688837,0.2120207519097811,0.10718899932882664,0.5836112242602255,0.7925190255512323,0.7799352597854183,0.8556182398670997,0.5883247959052645,0.20493588626491743,0.9401133459132305],[0.5616743520420591,-0.19203712459275904,-0.5423780795280388,1.5498664042780965,0.6187888105969565,1.2391922375276454,-0.45903462994393573,-0.6265732138544376,-1.1600422077027555,-1.0062438150457904,1.3272700378283115,0.9306141694338996,-0.9167278979008869,-1.2637897877498503,0.14525040486242585,-2.2347923998332777,0.882554179571765,0.5567257044769253,0.49857583652646775,0.8140457640827843,0.29044757667474297,0.05020834935200125,0.998132569091756,0.782642734045077,0.8982508070743787,0.4926255064018088,1.1726500931218633,4.786977288298893,0.14374406044092952],[0.25175691782826654,0.27706195102295694,1.9526661427716212,-0.7741562838469463,1.8005056366755647,1.4241487220956037,2.162999581108542,0.5103196233779099,-1.7264950299958823,-0.28501852572027575,-0.10317708868901612,0.9032473544497286,1.3963732999789278,1.5261346129759787,1.517497468789626,1.7561596872915395,1.7472507619109272,0.4504921670319705,0.8798744193115247,0.1134071880826033,0.4845495386252674,0.5001139694071995,0.31626298367380057,0.0027871587456834712,1.0557490036778012,0.5325862854545568,-6.087913096730825,-7.976327575501224,-2.327050683797389],[-4.299806073524841,-6.278622023215044,1.3268912820965602,-1.435111534847609,0.08325455307474801,1.465136431594216,10.573059410772336,1.7827100876217665,12.758699879699002,-4.829555340978985,-4.916112235923553,-3.678200194386262,-2.1492085670514944,-2.08374420275059,-1.8825010582286514,2.162876832267302,-0.04770837286095614,0.8056606988438607,0.9865463816770178,0.6402983001440032,0.578087613527665,0.08653489068231124,0.025549208828237524,0.9311850228765997,0.04646690237778313,0.9223616067159042,-3.5681886935232328,-10.961706223139016,-10.80633484785472]],"deltas":[0.001009353909040436,-7.693274487665227E-4,-0.0011383996279613676,-0.011727902844588215,0.02809248796257689,1.8960183264481973E-4],"random":{"seed":112885156371745,"nextNextGaussian":0.0,"haveNextNextGaussian":false},"numberOfNeurons":6,"inputSize":28},{"weights":[[-0.531470038980491,-3.087148326541481,0.8827004837748623,4.352286258557297,-4.164645925159619,-28.54300570006563,1.4430663060537365],[0.021717570013894426,5.840356116744015,0.5971257411844086,-0.05603848563116087,-5.9228422981456985,15.625861918763414,0.6502402070403318]],"deltas":[-0.014980507783671715,-0.008445031082728175],"random":{"seed":43307075222061,"nextNextGaussian":0.0,"haveNextNextGaussian":false},"numberOfNeurons":2,"inputSize":6}],"numOfLayers":2,"learningRate":0.1,"allOutputs":[],"allInputs":[],"allTargets":[]}