{"layers":[{"weights":[[1.3091618880376623,-0.054625221960306225,-3.730871359269678,2.8767657222205822,4.714499026863902,0.46065559800998485],[0.17775897194724075,3.5094533698689268,0.3876157836097304,-1.4793698704193745,-2.3861757312933247,0.16740520583753887],[-0.5006761305566334,-3.481585406951469,-0.5956819215345749,1.5576285210673353,2.239492352143493,-0.7376964155765988]],"deltas":[-6.316365222500577E-7,-6.280224397627976E-6,9.192546542885293E-6],"random":{"seed":40739907786713,"nextNextGaussian":0.0,"haveNextNextGaussian":false},"numberOfNeurons":3,"inputSize":5},{"weights":[[0.4545382844509082,1.043036017769265,-0.11205026205900591,0.39609451249108873],[-0.1758215663542074,-2.348951295824354,2.131354945798202,0.13705834534121752],[-0.16400521669985801,1.7561049225183518,-1.1049274759847085,0.38119141087517927],[0.7809997706396277,-1.2558618967810053,1.4105219013132169,0.21125070452900874],[1.7399901787902021,-0.6604795413695362,1.5579196980133134,0.8056007167295849],[3.367482155907725,-1.4213000516537286,0.8891545147495079,0.804989127136958],[-0.27124709336109126,-1.638064206003308,1.749345373801349,0.22008705310857057],[0.9858188103791029,0.6734252645322557,0.5251414364953892,0.2875396680665834],[-0.6504971461751131,-2.1774247439364536,2.5284755459744166,0.5973112072473845],[-2.5366469450602533,0.9178712938625594,0.3118830711704106,0.7603982401927233],[-0.19130717686552912,-1.0114010222513674,1.194045489992899,0.863523511863226],[0.09703582988952032,2.2137731482088148,-1.4361594889999105,0.966211872591514],[-3.919622409562972,1.9251813011247954,-1.542615501767048,0.9356894587147139],[0.8744140009065721,-0.6907262406372284,1.2288407784670756,0.986335115460652],[-0.49802733052986903,0.8761308326731181,0.7356861459995434,0.39295367596726327],[-0.5867781749017582,-1.6220625591923152,2.024681481977465,0.9809281647262544],[-1.948667467206112,1.4963911736386535,-1.0332668091403465,0.161348523846362],[-2.682661673725289,1.1390552306973263,0.147600847518477,0.47550246349204983],[0.3212367473688015,2.657912251865274,-2.3669658730974206,0.8406535518848661],[4.36585479076634,-2.1789510799035097,1.9745631363963183,0.9478206587990156]],"deltas":[-5.20493612340986E-6,1.1973474678953E-5,-9.180466257239886E-6,3.4561450217407786E-6,-1.2339712254052632E-7,-8.444379822310291E-7,1.2113151688612877E-5,-1.9607048182239013E-6,1.616753178318288E-5,4.225099942819909E-6,1.1016947280844676E-5,-1.3102701290809562E-5,2.6890438718141165E-7,2.321122344323138E-6,2.4803251503939196E-6,1.5950344168020843E-5,-6.065889331580778E-7,2.5882093078429837E-6,-1.270363302339038E-5,-1.4431493695886976E-7],"random":{"seed":193579782565617,"nextNextGaussian":0.0,"haveNextNextGaussian":false},"numberOfNeurons":20,"inputSize":3},{"weights":[[0.0768303512119736,-1.839528664333117,0.966485476507569,-1.964118454205188,-1.6138169773011846,-2.2740908446131063,-1.360483737112194,-0.7455842390477043,-0.7873357844518745,1.5555628876088623,-0.8618517757016364,0.6546958138820658,2.6411956281352267,-1.6411389154129354,0.341819417075951,-0.7641388529630987,2.395901847369151,2.00316493278784,1.0701878540071235,-3.249748249830856,0.7299412602180924],[0.1517356960942011,-2.618477205928579,0.67473135476737,-0.7798245871526511,0.6673256255089479,2.4018798085776547,-2.1846857226158765,-0.08755637440365528,-3.7970398326252752,-2.587047778187175,-1.6618029535786911,1.3011797556756695,-3.850810369091158,-0.4806596013560364,-1.2213881366831467,-2.6789362693383127,-0.8888571206602808,-2.2930426594851387,2.431990682116369,3.670991679480087,0.15003885512106896],[-0.9460412113144511,1.7414910395495207,-1.7988552645039737,0.8352103664576804,0.6952729982039666,0.24987329771830105,1.080097812829744,-0.8085199757869402,1.6095094389708606,-0.9039650369379814,0.7033707124425831,-2.215876885739915,-2.1720166577244377,0.5584850696932417,-1.0519249829456725,1.5347101740149254,-1.7816935162113323,-1.062993041627395,-2.5818499418414964,1.2578711238615863,0.12030304295464012]],"deltas":[-5.181703665000226E-13,-2.4486303342864136E-5,1.8866707936203818E-5],"random":{"seed":154369070460045,"nextNextGaussian":0.0,"haveNextNextGaussian":false},"numberOfNeurons":3,"inputSize":20}],"numOfLayers":3,"learningRate":0.1,"allOutputs":[],"allInputs":[],"allTargets":[]}